#ifndef WEIGHTS
#define WEIGHTS

float layer_0_w[] = {   4.571162462234497070e-01,1.275141984224319458e-01,2.028357535600662231e-01,1.516316831111907959e-01,2.640192508697509766e-01,-4.918259382247924805e-02,6.868923455476760864e-02,1.358038634061813354e-01,4.646122753620147705e-01,-6.875650882720947266e-01,3.944326937198638916e-01,-2.871152162551879883e-01,3.251722157001495361e-01,-6.373608708381652832e-01,5.507113412022590637e-02,-4.590089246630668640e-02,-1.604543328285217285e-01,-2.774208318442106247e-03,2.665853798389434814e-01,-6.498632431030273438e-01,5.312432348728179932e-02,-2.680432498455047607e-01,-1.625772714614868164e-01,7.278390973806381226e-02,
                        -1.802527755498886108e-01,2.496445477008819580e-01,-4.637849628925323486e-01,-3.147602975368499756e-01,3.098323047161102295e-01,1.112861558794975281e-02,-8.767253160476684570e-02,-2.285041809082031250e-01,4.854612797498703003e-02,2.438201159238815308e-01,-2.370276451110839844e-01,2.045980989933013916e-01,-9.960696846246719360e-02,3.203828632831573486e-01,-1.894790530204772949e-01,-1.734163910150527954e-01,-1.366530060768127441e-01,-2.034321576356887817e-01,-2.489543110132217407e-01,-2.847178876399993896e-01,-1.381612867116928101e-01,-3.747575581073760986e-01,-4.710820317268371582e-02,-1.001297682523727417e-01,
                        2.648753225803375244e-01,-1.410703212022781372e-01,-2.552506327629089355e-01,1.532956361770629883e-01,-3.455987870693206787e-01,-5.925288200378417969e-01,5.377835631370544434e-01,-2.059129327535629272e-01,5.113713741302490234e-01,5.664456263184547424e-02,-4.614264518022537231e-02,1.989592909812927246e-01,5.892626643180847168e-01,-4.648427069187164307e-01,-4.536090791225433350e-02,1.909090019762516022e-02,-1.544584631919860840e-01,9.898395836353302002e-02,-2.952936589717864990e-01,9.205912053585052490e-02,3.177482783794403076e-01,3.272594213485717773e-01,-9.828338027000427246e-02,-5.028423666954040527e-01,
                        -1.083694491535425186e-02,8.933934569358825684e-02,5.234864354133605957e-01,-2.996154129505157471e-01,7.244535535573959351e-02,-3.346852958202362061e-02,-4.426999390125274658e-01,-1.724578291177749634e-01,6.515083461999893188e-02,-5.687196180224418640e-02,-6.963723152875900269e-02,2.712299525737762451e-01,2.155578881502151489e-01,6.397863030433654785e-01,-4.058853164315223694e-02,-1.690280586481094360e-01,4.193409159779548645e-02,-3.025608956813812256e-01,-1.738637834787368774e-01,-2.893869206309318542e-02,-4.129358530044555664e-01,-2.861640416085720062e-02,-4.867620170116424561e-01,-1.332072019577026367e-01,
                        3.291183710098266602e-01,-9.592497944831848145e-01,2.423877865076065063e-01,-9.138933420181274414e-01,6.436566263437271118e-02,2.978461422026157379e-02,-6.980147361755371094e-01,-3.332638740539550781e-02,3.478154838085174561e-01,-3.414320349693298340e-01,2.316266596317291260e-01,3.724034130573272705e-01,-1.010890245437622070e+00,-1.655993759632110596e-01,-1.422315537929534912e-01,-3.410911262035369873e-01,-3.122643753886222839e-02,-2.907905355095863342e-02,-1.013782024383544922e+00,-7.458142638206481934e-01,1.103398054838180542e-01,-1.117146372795104980e+00,-1.584972739219665527e-01,8.620222657918930054e-02,
                        5.885978229343891144e-03,6.944028288125991821e-02,-4.860557913780212402e-01,6.973881274461746216e-02,1.835068315267562866e-01,-3.043481707572937012e-01,1.113456115126609802e-01,-4.030279815196990967e-02,1.261135637760162354e-01,-3.660609424114227295e-01,-5.728371739387512207e-01,-3.817233443260192871e-02,-1.946511507034301758e+00,2.941125333309173584e-01,-8.741427063941955566e-01,-3.771457076072692871e-02,-2.342471480369567871e-02,2.780874371528625488e-01,-3.296861946582794189e-01,-1.932182721793651581e-02,9.987110644578933716e-02,-3.836466372013092041e-01,-1.147588253021240234e+00,8.344281464815139771e-02,
                        -1.326314568519592285e+00,4.957100749015808105e-01,9.868977963924407959e-02,-3.857407569885253906e-01,-8.495179414749145508e-01,-3.011299073696136475e-01,9.520667791366577148e-02,-1.425496786832809448e-01,2.140289843082427979e-01,3.701587617397308350e-01,-1.546318650245666504e+00,-7.213599681854248047e-01,-2.244416996836662292e-02,-3.941835463047027588e-02,-6.848491728305816650e-02,-2.863122522830963135e-01,-4.018435478210449219e-01,-5.861520022153854370e-02,4.685194231569766998e-03,9.176997095346450806e-02,-6.220760345458984375e-01,2.368164062500000000e-02,-1.316269040107727051e-01,-7.539751529693603516e-01,
                        -1.632897257804870605e-01,-2.924049496650695801e-01,1.417288929224014282e-01,-5.528951883316040039e-01,-1.148844957351684570e+00,7.904288172721862793e-02,-1.266039133071899414e+00,-3.764466643333435059e-01,9.962268173694610596e-02,1.477416902780532837e-01,3.498147726058959961e-01,-1.920643299818038940e-01,2.464438080787658691e-01,-6.351730972528457642e-02,3.088862597942352295e-01,-1.808202266693115234e-02,-2.935128519311547279e-03,-1.894754916429519653e-01,-6.594839692115783691e-02,-9.706299006938934326e-02,-6.072874665260314941e-01,8.948803297244012356e-04,1.797093898057937622e-01,3.977702260017395020e-01,
                        2.724737823009490967e-01,5.472667217254638672e-01,3.295252332463860512e-03,2.594544924795627594e-02,1.270709782838821411e-01,-4.434038400650024414e-01,-1.172467414289712906e-02,-4.458499327301979065e-02,-4.741785526275634766e-01,2.020921185612678528e-02,-1.501080244779586792e-01,-6.629963219165802002e-02,1.063893958926200867e-01,-1.908720880746841431e-01,-2.267041951417922974e-01,-1.226008683443069458e-01,-2.453653365373611450e-01,-5.520217865705490112e-02,2.610613405704498291e-01,-5.029931664466857910e-01,-7.333754748106002808e-02,-3.185859918594360352e-01,4.127669632434844971e-01,1.490973383188247681e-01,
                        -8.303944766521453857e-02,-2.081234753131866455e-01,-3.036478757858276367e-01,-1.122953370213508606e-01,4.039392806589603424e-03,-4.299248158931732178e-01,1.623756438493728638e-01,1.493852585554122925e-02,-4.032970368862152100e-01,5.265357494354248047e-01,4.423262178897857666e-01,-3.951628804206848145e-01,3.419712930917739868e-02,-1.000614613294601440e-01,3.697804510593414307e-01,1.186977233737707138e-02,3.693134337663650513e-02,5.809401348233222961e-02,-1.159538775682449341e-01,-1.692308858036994934e-02,1.332362145185470581e-01,-7.732839882373809814e-02,1.001821234822273254e-01,1.406943351030349731e-01,
                        4.519438445568084717e-01,7.694208994507789612e-03,-6.930848956108093262e-02,3.498449921607971191e-01,2.641232870519161224e-02,-3.014149665832519531e-01,2.151728421449661255e-01,-9.530195593833923340e-02,-2.464377135038375854e-01,-1.949494183063507080e-01,8.364479243755340576e-02,8.270770907402038574e-01,3.805735707283020020e-02,-3.002405464649200439e-01,-1.568501144647598267e-01,-2.965409159660339355e-01,-2.493569105863571167e-01,1.115401387214660645e-01,-4.364067688584327698e-02,-9.794959425926208496e-02,2.460831254720687866e-01,-1.849193312227725983e-02,2.950589060783386230e-01,-3.076543211936950684e-01,
                        1.797342151403427124e-01,-5.106262862682342529e-02,5.093715712428092957e-02,3.041242659091949463e-01,7.156699150800704956e-02,-6.036140918731689453e-01,2.159031629562377930e-01,-3.602569922804832458e-02,-4.034478068351745605e-01,2.382023818790912628e-02,2.554764747619628906e-01,-3.935891985893249512e-01,8.557290583848953247e-02,6.897131800651550293e-01,1.604605838656425476e-02,-6.548057496547698975e-02,-2.762595415115356445e-01,1.904292255640029907e-01,-2.378631681203842163e-01,-2.700036764144897461e-01,1.059705391526222229e-01,-6.271230429410934448e-02,-2.518197298049926758e-01,-8.357194066047668457e-02
};

float layer_0_b[] = {   -4.593585431575775146e-01,
                        -5.759548544883728027e-01,
                        -6.994869709014892578e-01,
                        -2.835431694984436035e-01,
                        -6.996487975120544434e-01,
                        -2.184623628854751587e-01,
                        -6.463807225227355957e-01,
                        -8.163890987634658813e-02,
                        2.812396287918090820e-01,
                        -5.283457636833190918e-01,
                        -5.992093682289123535e-01,
                        -2.640488743782043457e-01,
                        -6.151936650276184082e-01,
                        -4.769194424152374268e-01,
                        -8.333175182342529297e-01,
                        -4.624981284141540527e-01,
                        -8.593674749135971069e-02,
                        -7.461243271827697754e-01,
                        -5.779608488082885742e-01,
                        -6.669623851776123047e-01,
                        -7.080372571945190430e-01,
                        -6.207247972488403320e-01,
                        -6.071403026580810547e-01,
                        -7.191262841224670410e-01};

float layer_1_w[] = {   3.008383512496948242e-01,-2.173269540071487427e-01,-1.139255240559577942e-01,5.688251927495002747e-02,-2.482436150312423706e-01,-3.967956826090812683e-02,-7.000635862350463867e-01,-2.865974009037017822e-01,-7.633422613143920898e-01,-9.516061097383499146e-02,-8.598729968070983887e-03,-2.995474636554718018e-01,-2.290833741426467896e-01,-6.663560271263122559e-01,-4.108653217554092407e-02,-1.324446797370910645e-01,-2.146930247545242310e-01,-1.580417007207870483e-01,-2.296718060970306396e-01,-1.667295992374420166e-01,-8.828521519899368286e-02,-7.419323176145553589e-02,2.839845120906829834e-01,-6.810810416936874390e-02,
                        4.746667668223381042e-02,-2.474285364151000977e-01,-1.282897889614105225e-01,-1.130069419741630554e-02,6.474204361438751221e-02,-1.090867146849632263e-01,-4.960545003414154053e-01,-3.368363082408905029e-01,8.848549425601959229e-02,-3.300441503524780273e-01,6.484085693955421448e-03,5.152527615427970886e-02,2.003959417343139648e-01,-4.854583144187927246e-01,-3.635231256484985352e-01,1.233358308672904968e-01,-4.155768752098083496e-01,2.556979656219482422e-01,-1.750946789979934692e-01,5.922235250473022461e-01,2.330430895090103149e-01,-1.277925223112106323e-01,-6.153957545757293701e-02,-4.085043370723724365e-01,
                        5.064786672592163086e-01,4.214605093002319336e-01,8.233311772346496582e-02,-1.754398941993713379e-01,-3.206278383731842041e-01,3.268365859985351562e-01,1.914827972650527954e-01,-1.934028714895248413e-01,4.886741191148757935e-02,-7.390292286872863770e-01,2.064802646636962891e-01,-3.294831216335296631e-01,1.221107393503189087e-01,-1.408057403750717640e-03,1.256172209978103638e-01,-1.898820996284484863e-01,5.022104978561401367e-01,3.293480277061462402e-01,-5.135369896888732910e-01,3.044923841953277588e-01,1.419398784637451172e-01,-6.139829754829406738e-01,1.327023208141326904e-01,5.908844247460365295e-02,
                        -3.364628851413726807e-01,2.014020383358001709e-01,-1.851403713226318359e-01,1.343633085489273071e-01,-7.571557909250259399e-02,-3.563122749328613281e-01,3.568622469902038574e-02,2.288622409105300903e-02,1.107615977525711060e-01,-5.977734923362731934e-01,-2.654444575309753418e-01,2.673736214637756348e-01,7.610359042882919312e-02,-4.322384670376777649e-02,-2.421833015978336334e-02,-3.071727454662322998e-01,-8.811230212450027466e-02,4.199365079402923584e-01,-2.934808097779750824e-02,3.475314974784851074e-01,-7.425256818532943726e-02,1.974581331014633179e-01,1.160648614168167114e-01,-2.497511059045791626e-01,
                        3.052166104316711426e-01,-7.720646262168884277e-02,-2.475524395704269409e-01,3.466444313526153564e-01,2.733431942760944366e-02,-8.629117906093597412e-02,-3.726227283477783203e-01,-1.997259855270385742e-01,-4.872876107692718506e-01,4.619197845458984375e-01,1.497534513473510742e-01,2.749467790126800537e-01,-4.783106446266174316e-01,-3.168165683746337891e-01,-1.351525485515594482e-01,-8.672514557838439941e-02,-2.058481872081756592e-01,-9.357362240552902222e-02,-5.011408776044845581e-02,5.205541849136352539e-02,2.418225556612014771e-01,3.916662652045488358e-03,5.915103480219841003e-02,1.654859185218811035e-01,
                        1.564962975680828094e-02,-3.225464522838592529e-01,3.238533437252044678e-01,1.337930858135223389e-01,8.288380503654479980e-02,1.103175729513168335e-01,-1.644358485937118530e-01,-2.667179107666015625e-01,4.728085175156593323e-02,-2.586006522178649902e-01,4.013962298631668091e-02,3.699411749839782715e-01,-2.647784650325775146e-01,1.212086621671915054e-02,-1.403931677341461182e-01,-1.502170264720916748e-01,2.556348741054534912e-01,3.277423977851867676e-01,3.782004117965698242e-03,-4.310277104377746582e-02,-1.902024894952774048e-01,-2.313996851444244385e-01,-3.448123633861541748e-01,1.756925731897354126e-01,
                        8.728302270174026489e-02,-3.553633019328117371e-02,3.624689877033233643e-01,3.320162594318389893e-01,-2.831233441829681396e-01,-3.432545065879821777e-01,-6.228564381599426270e-01,2.710230462253093719e-02,2.633114755153656006e-01,1.524402648210525513e-01,1.235930174589157104e-01,1.349460780620574951e-01,-8.734616637229919434e-02,-2.658774852752685547e-01,1.425632834434509277e-01,-2.090417034924030304e-02,1.036641150712966919e-01,-9.244334697723388672e-02,-3.967285752296447754e-01,-7.284286618232727051e-02,4.066628217697143555e-02,-2.064730525016784668e-01,1.207728981971740723e-01,-2.833362519741058350e-01,
                        -1.100531145930290222e-01,-3.089012391865253448e-02,1.221275702118873596e-01,1.247835755348205566e-01,1.656732857227325439e-01,-2.465547919273376465e-01,5.350917950272560120e-02,-1.004292666912078857e-01,-3.174406886100769043e-01,1.226071119308471680e-01,3.206718266010284424e-01,-1.565221548080444336e-01,-2.115716189146041870e-01,-1.295107752084732056e-01,3.077153563499450684e-01,-2.461993247270584106e-01,1.573885679244995117e-01,1.393714845180511475e-01,1.729295551776885986e-01,4.819531366229057312e-02,1.022864803671836853e-01,1.209700927138328552e-01,1.437468379735946655e-01,-1.451798826456069946e-01,
                        -3.844755589962005615e-01,-2.088996767997741699e-01,-2.643353939056396484e-01,-2.067985385656356812e-01,4.402884468436241150e-02,-3.206621110439300537e-01,-7.948654890060424805e-02,-3.430882394313812256e-01,-1.093313544988632202e-01,2.080067396163940430e-01,-8.121398277580738068e-03,-1.705483496189117432e-01,-2.431530952453613281e-01,-2.858716845512390137e-01,-2.361457198858261108e-01,-1.171874552965164185e-01,-6.119070053100585938e-01,-2.346378415822982788e-01,3.098548054695129395e-01,-5.303899645805358887e-01,-2.756954729557037354e-01,-1.131736487150192261e-01,1.083640288561582565e-02,-2.340081930160522461e-01,
                        -9.756495058536529541e-02,7.406657934188842773e-02,-2.264568395912647247e-02,9.125532954931259155e-02,-2.110168784856796265e-01,-1.689146310091018677e-01,3.273105621337890625e-01,-3.143334090709686279e-01,3.392075374722480774e-02,-3.058371320366859436e-02,-2.194555252790451050e-01,9.054306894540786743e-02,-1.003071963787078857e-01,-3.217107057571411133e-01,-3.116748034954071045e-01,9.512834250926971436e-02,-1.451762765645980835e-01,-1.775556951761245728e-01,-7.423296570777893066e-01,-5.002228915691375732e-02,2.225521802902221680e-01,-8.512692153453826904e-02,-1.208736300468444824e-01,2.761948704719543457e-01,
                        -8.976877480745315552e-02,-2.445945888757705688e-01,-5.339406132698059082e-01,-3.498840630054473877e-01,-2.319390624761581421e-01,1.477989852428436279e-01,2.848678082227706909e-02,-3.021688759326934814e-01,-5.180221199989318848e-01,7.322151958942413330e-02,2.027797698974609375e-01,-1.351677179336547852e-01,-4.510520398616790771e-01,-2.022494822740554810e-01,-1.299089640378952026e-01,-1.865106262266635895e-02,3.182977065443992615e-02,2.481660693883895874e-01,-2.474798113107681274e-01,3.101787865161895752e-01,-1.971360743045806885e-01,-5.469414591789245605e-01,1.999926865100860596e-01,2.481964230537414551e-01,
                        -5.341742634773254395e-01,-2.025684267282485962e-01,-5.172542333602905273e-01,-7.828725874423980713e-02,-4.109503328800201416e-01,2.412620037794113159e-01,-2.053599208593368530e-01,-1.934603154659271240e-01,-2.657143399119377136e-02,-3.933881223201751709e-01,4.850807785987854004e-02,2.904592156410217285e-01,3.398923873901367188e-01,-1.412583589553833008e-01,-2.777408659458160400e-01,4.287266358733177185e-02,4.597999155521392822e-03,5.327806994318962097e-02,-6.989934481680393219e-03,-2.943537831306457520e-01,-5.653223991394042969e-01,-2.547231316566467285e-02,2.411243468523025513e-01,2.090234123170375824e-02,
                        1.496127843856811523e-01,-9.925530105829238892e-02,-1.943061500787734985e-01,-9.617067128419876099e-02,8.225395530462265015e-02,-3.300631642341613770e-01,-2.488844841718673706e-01,1.704848557710647583e-01,3.988764584064483643e-01,-6.733698844909667969e-01,-9.907076135277748108e-03,-6.873311102390289307e-02,-1.984674483537673950e-01,-1.628403663635253906e-01,-2.898617088794708252e-01,-4.787476733326911926e-02,2.873727679252624512e-01,2.150333113968372345e-02,-7.784782350063323975e-02,1.171208173036575317e-01,2.572226226329803467e-01,-2.185629308223724365e-01,2.259081751108169556e-01,1.196806654334068298e-01,
                        3.664044141769409180e-01,3.053347170352935791e-01,-8.506165146827697754e-01,3.121629655361175537e-01,-2.268133759498596191e-01,-2.785293385386466980e-02,1.270681768655776978e-01,-2.107561007142066956e-02,-6.039491295814514160e-02,-3.613568544387817383e-01,2.737357318401336670e-01,-7.761334534734487534e-03,-5.832979083061218262e-01,-3.770893812179565430e-01,-7.087976671755313873e-03,1.508272159844636917e-02,5.930338501930236816e-01,1.293427497148513794e-01,2.482474595308303833e-02,-5.003558993339538574e-01,-4.433898255228996277e-02,-4.145889729261398315e-02,-1.143331527709960938e-01,-7.876004278659820557e-02,
                        1.524411141872406006e-01,-5.642669796943664551e-01,-6.683285236358642578e-01,2.081964313983917236e-01,-4.323731660842895508e-01,6.942278146743774414e-02,1.995492279529571533e-01,-3.725584745407104492e-01,-1.347812414169311523e-01,-8.602948188781738281e-01,2.779674232006072998e-01,1.879514157772064209e-01,-5.860173702239990234e-01,1.256927847862243652e-01,-2.043923884630203247e-01,-6.495774537324905396e-02,-4.488862156867980957e-01,-3.395424410700798035e-02,-4.968205094337463379e-01,-3.993349894881248474e-02,-2.819854021072387695e-02,1.193490102887153625e-01,-2.044868422672152519e-03,2.168989181518554688e-01,
                        5.117042735219001770e-02,2.268372103571891785e-02,-1.043624430894851685e-01,1.143608465790748596e-01,-8.461240679025650024e-02,-1.018369495868682861e-01,-9.383180737495422363e-02,-2.190637737512588501e-01,-1.901405900716781616e-01,1.915686279535293579e-01,5.956343933939933777e-02,7.845011353492736816e-02,-3.767197132110595703e-01,-3.190731108188629150e-01,-2.782891094684600830e-01,2.992405593395233154e-01,1.354209780693054199e-01,1.493479013442993164e-01,-1.392422057688236237e-02,-1.833446025848388672e-01,-1.467826217412948608e-01,-3.741497695446014404e-01,6.745913624763488770e-02,-2.069108933210372925e-01,
                        1.891915053129196167e-01,-3.024806678295135498e-01,8.909270167350769043e-02,6.979036331176757812e-02,2.852011620998382568e-01,4.526603594422340393e-02,-1.629376858472824097e-01,-2.684247493743896484e-01,4.163384437561035156e-04,-1.043010056018829346e-01,-1.510317921638488770e-01,1.684937477111816406e-01,2.018402516841888428e-01,1.793551445007324219e-02,-1.077688187360763550e-01,1.208118349313735962e-01,-7.725187391042709351e-02,7.513178046792745590e-03,-2.731992304325103760e-01,1.910531818866729736e-01,5.777060985565185547e-03,-2.547590732574462891e-01,-1.048226282000541687e-01,2.007003128528594971e-01,
                        1.940252482891082764e-01,-3.069321215152740479e-01,1.756298243999481201e-01,2.004750967025756836e-01,-2.702536284923553467e-01,-5.697613582015037537e-02,8.587864041328430176e-02,3.959651291370391846e-02,3.510864078998565674e-01,-3.085548281669616699e-01,-1.565778106451034546e-01,-2.131451219320297241e-01,-1.825333386659622192e-01,2.762044593691825867e-02,-4.936640560626983643e-01,5.196362733840942383e-02,3.855297341942787170e-02,3.360218927264213562e-02,-5.440378189086914062e-01,1.150719299912452698e-01,-1.989165842533111572e-01,-3.875754773616790771e-01,2.001119218766689301e-02,-4.857979342341423035e-02,
                        2.992134094238281250e-01,-1.399998515844345093e-01,-9.680376201868057251e-02,-8.376284688711166382e-02,-4.924815595149993896e-01,8.402521908283233643e-02,-5.211320519447326660e-01,-3.249045610427856445e-01,4.045879244804382324e-01,-1.616521030664443970e-01,-4.410448968410491943e-01,-2.614285051822662354e-01,-1.555755287408828735e-01,-2.092833071947097778e-01,-2.502686083316802979e-01,-2.176454365253448486e-01,2.682765722274780273e-01,-4.955953955650329590e-01,-2.286334186792373657e-01,5.640123486518859863e-01,1.831589825451374054e-02,-8.081770688295364380e-02,-2.524505369365215302e-02,-5.376534909009933472e-02,
                        5.500810220837593079e-02,2.091217339038848877e-01,1.484184861183166504e-01,4.087318480014801025e-02,5.622526258230209351e-02,3.992189466953277588e-01,-6.968807429075241089e-02,4.614370763301849365e-01,6.034855544567108154e-02,-4.077985286712646484e-01,1.141041144728660583e-01,2.180105745792388916e-01,-2.488218992948532104e-01,1.710803657770156860e-01,-2.981335222721099854e-01,3.585116565227508545e-01,1.109707430005073547e-01,-1.954998522996902466e-01,-3.696703612804412842e-01,8.300987631082534790e-02,-6.243678554892539978e-02,-4.548038840293884277e-01,-3.519668802618980408e-02,-1.345694959163665771e-01,
                        -1.659963428974151611e-01,-4.071962535381317139e-01,1.344881504774093628e-01,-5.573865398764610291e-02,2.486177533864974976e-01,3.048575222492218018e-01,-2.733035683631896973e-01,-4.980065226554870605e-01,-2.598446421325206757e-02,-6.409626603126525879e-01,1.528828144073486328e-01,3.628222271800041199e-02,2.674516141414642334e-01,7.710415404289960861e-03,-2.219605892896652222e-01,7.269776612520217896e-02,2.114880234003067017e-01,-3.117399215698242188e-01,-3.843429684638977051e-01,4.238732457160949707e-01,-5.405612587928771973e-01,1.287830322980880737e-01,1.563093662261962891e-01,4.585635662078857422e-02,
                        -1.727970540523529053e-01,8.308104425668716431e-02,2.007199674844741821e-01,-4.111452028155326843e-03,-1.800899058580398560e-01,6.061078608036041260e-02,1.004629507660865784e-01,-3.497984707355499268e-01,-2.022878080606460571e-01,-8.849298465065658092e-04,1.864081770181655884e-01,-5.065455436706542969e-01,-3.827254772186279297e-01,-2.235507220029830933e-01,1.384048312902450562e-01,-1.956105232238769531e-01,2.912963330745697021e-01,-4.165228903293609619e-01,2.672252357006072998e-01,-1.266956180334091187e-01,4.423692077398300171e-02,-3.312565386295318604e-02,-7.845481485128402710e-02,8.398561179637908936e-02,
                        8.884670138359069824e-01,-1.178782507777214050e-01,-4.151103496551513672e-01,-3.539640456438064575e-02,2.814503014087677002e-01,-4.278852641582489014e-01,2.030479162931442261e-01,-7.429622113704681396e-02,-7.186202332377433777e-03,7.647427916526794434e-02,-3.406308293342590332e-01,-1.747927069664001465e-01,-1.065664589405059814e-01,-4.159582853317260742e-01,-3.126985579729080200e-02,-7.111603021621704102e-02,3.028251826763153076e-01,-1.023039102554321289e+00,-2.542355358600616455e-01,-6.249147281050682068e-02,-1.026895716786384583e-01,-1.945700347423553467e-01,7.561617344617843628e-02,1.497920155525207520e-01,
                        2.978140711784362793e-01,-1.316029280424118042e-01,4.797956943511962891e-01,9.964008629322052002e-02,-1.303809285163879395e-01,-2.516002766788005829e-02,-8.311363458633422852e-01,-3.700981438159942627e-01,-1.825197190046310425e-01,3.651334047317504883e-01,-2.267143875360488892e-01,-2.293310761451721191e-01,-5.501016378402709961e-01,-3.036977648735046387e-01,-1.046228259801864624e-01,5.323766265064477921e-03,2.688599228858947754e-01,-2.565810084342956543e-02,1.907734870910644531e-01,5.469442009925842285e-01,1.319973170757293701e-01,-2.845579087734222412e-01,-2.139546126127243042e-01,1.190867125988006592e-01
};
float layer_1_b[] = {   -2.418194562196731567e-01,
                        -1.110853850841522217e-01,
                        5.749835632741451263e-03,
                        -7.944145202636718750e-01,
                        -1.877652853727340698e-01,
                        -7.106962800025939941e-01,
                        -2.208354026079177856e-01,
                        -1.412676423788070679e-01,
                        -4.910071194171905518e-01,
                        -3.165133297443389893e-01,
                        -1.416251063346862793e-01,
                        -1.125790476799011230e+00,
                        -1.751498579978942871e-01,
                        -3.854326903820037842e-01,
                        -3.466664850711822510e-01,
                        -6.864551901817321777e-01,
                        -7.639146447181701660e-01,
                        -4.637166857719421387e-01,
                        -2.992034852504730225e-01,
                        -1.205230578780174255e-01,
                        -6.879555583000183105e-01,
                        -3.104816973209381104e-01,
                        -1.012388586997985840e+00,
                        -9.425857067108154297e-01
};
float layer_2_w[] = {   -5.366784334182739258e-02,1.263714879751205444e-01,2.395069003105163574e-01,4.654887691140174866e-02,
                        5.521448254585266113e-01,2.225698679685592651e-01,1.236087828874588013e-01,-5.467835068702697754e-02,
                        4.495670795440673828e-01,3.067222237586975098e-01,6.491331756114959717e-02,3.943530917167663574e-01,
                        8.486578613519668579e-02,1.321082413196563721e-01,3.378938138484954834e-01,3.173981904983520508e-01,
                        8.271111547946929932e-02,3.033666014671325684e-01,1.447625160217285156e-01,-1.478707492351531982e-01,
                        1.700680255889892578e-01,2.165725976228713989e-01,4.319210648536682129e-01,2.949635498225688934e-02,
                        3.089455962181091309e-01,1.894079148769378662e-01,3.089999258518218994e-01,3.063592612743377686e-01,
                        2.377405017614364624e-01,-5.543195083737373352e-02,-4.047932624816894531e-01,1.943994462490081787e-01,
                        5.558307766914367676e-01,2.150900810956954956e-01,3.193358778953552246e-01,4.522582590579986572e-01,
                        3.505598902702331543e-01,1.966378092765808105e-01,-2.089935541152954102e-01,1.870544850826263428e-01,
                        -6.166470050811767578e-02,1.957238614559173584e-01,1.183810159564018250e-01,-1.664420589804649353e-02,
                        1.378764212131500244e-01,1.982865296304225922e-02,2.532302588224411011e-02,1.072992086410522461e-01,
                        8.460091799497604370e-02,1.619579792022705078e-01,5.042892694473266602e-01,2.910366654396057129e-01,
                        1.659159660339355469e-01,1.905214637517929077e-01,1.633892357349395752e-01,-1.344388574361801147e-01,
                        -1.436552405357360840e-02,-2.883470952510833740e-01,-1.989492326974868774e-01,-9.983475320041179657e-03,
                        9.494030475616455078e-02,8.660803735256195068e-02,8.190348744392395020e-02,9.637857973575592041e-02,
                        7.363953441381454468e-02,5.344954505562782288e-02,1.657053083181381226e-01,-5.562752112746238708e-02,
                        5.863112746737897396e-04,-1.004144083708524704e-02,1.855832934379577637e-01,7.728870213031768799e-02,
                        9.970238432288169861e-03,5.235137045383453369e-02,6.141881272196769714e-02,-1.948344409465789795e-01,
                        -2.632365934550762177e-02,2.214595377445220947e-01,1.499765645712614059e-02,1.075048819184303284e-01,
                        4.451522231101989746e-01,6.502197384834289551e-01,2.503973543643951416e-01,2.390647977590560913e-01,
                        2.051424682140350342e-01,2.495225146412849426e-02,-2.699794173240661621e-01,-5.832751095294952393e-02,
                        6.424395442008972168e-01,3.875378370285034180e-01,3.000599741935729980e-01,2.789341807365417480e-01,
                        2.138750851154327393e-01,1.357941925525665283e-01,2.374134659767150879e-01,6.044843196868896484e-01
};
float layer_2_b[] = {   4.965279698371887207e-01,
                        8.260567188262939453e-01,
                        4.712810516357421875e-01,
                        5.028768777847290039e-01};

#endif
